svm_type c_svc
kernel_type rbf
gamma 0.0769231
nr_class 2
total_sv 279
rho -5.37021
label 1 -1
nr_sv 142 137
SV
100 1:-0.885714 2:-0.954545 3:-0.666667 4:-0.545455 5:-0.954545 6:-0.954545 7:-1 8:-0.961686 9:-0.929577 10:-0.968504 11:-0.879518 12:-0.666667 13:-0.874126 
100 1:-0.714286 2:-0.772727 3:-1 4:-0.818182 5:-0.772727 6:-0.818182 7:-1 8:-0.59387 9:-0.570423 10:-0.637795 11:-0.493976 12:-0.277778 13:-0.559441 
100 1:-1 2:-1 3:-1 4:-1 5:-1 6:-1 7:-1 8:-0.954023 9:-0.922535 10:-0.929134 11:-0.855422 12:-0.833333 13:-0.951049 
100 1:-0.828571 2:-0.818182 3:-1 4:-0.863636 5:-1 6:-1 7:-1 8:-0.823755 9:-0.852113 10:-0.874016 11:-0.710843 12:-0.444444 13:-0.783217 
100 1:-0.714286 2:-0.818182 3:-1 4:-0.863636 5:-0.818182 6:-0.863636 7:-0.809524 8:-0.816092 9:-0.788732 10:-0.799213 11:-0.566265 12:-0.333333 13:-0.769231 
100 1:-0.771429 2:-0.863636 3:-1 4:-1 5:-0.863636 6:-0.863636 7:-1 8:-0.908046 9:-0.767606 10:-0.799213 11:-0.590361 12:-0.333333 13:-0.881119 
100 1:-0.714286 2:-0.863636 3:-1 4:-0.863636 5:-0.863636 6:-0.863636 7:-1 8:-0.800766 9:-0.816901 10:-0.814961 11:-0.686747 12:-0.444444 13:-0.755245 
100 1:-0.828571 2:-0.818182 3:-1 4:-0.909091 5:-0.818182 6:-0.863636 7:-0.714286 8:-0.678161 9:-0.697183 10:-0.69685 11:-0.542169 12:-0.222222 13:-0.664336 
100 1:-1 2:-1 3:-1 4:-1 5:-1 6:-1 7:-1 8:-0.954023 9:-0.950704 10:-0.937008 11:-0.831325 12:-0.777778 13:-0.951049 
100 1:-1 2:-0.954545 3:-1 4:-1 5:-0.954545 6:-0.954545 7:-1 8:-0.969349 9:-0.985915 10:-0.944882 11:-0.951807 12:-0.666667 13:-0.965035 
100 1:-1 2:-1 3:-1 4:-0.909091 5:-1 6:-1 7:-1 8:-0.938697 9:-0.873239 10:-0.897638 11:-0.686747 12:-0.444444 13:-0.923077 
100 1:-0.942857 2:-1 3:-1 4:-1 5:-1 6:-1 7:-1 8:-0.984674 9:-0.985915 10:-0.988189 11:-0.951807 12:-0.833333 13:-0.972028 
12.82324507891894 1:-0.714286 2:-0.818182 3:-1 4:-1 5:-0.818182 6:-0.909091 7:-0.809524 8:-0.885057 9:-0.739437 10:-0.69685 11:-0.542169 12:0.277778 13:-0.853147 
100 1:-0.714286 2:-1 3:-1 4:-0.818182 5:-1 6:-1 7:-1 8:-0.931034 9:-0.943662 10:-0.940945 11:-0.831325 12:-0.722222 13:-0.867133 
73.02221637506143 1:-0.314286 2:-0.318182 3:-1 4:-1 5:-0.318182 6:-0.454545 7:-0.142857 8:-0.279693 9:-0.0211268 10:-0.240157 11:-0.0120482 12:0.0555556 13:-0.230769 
100 1:-0.771429 2:-0.909091 3:-1 4:-1 5:-0.909091 6:-0.909091 7:-1 8:-0.923372 9:-0.93662 10:-0.92126 11:-0.831325 12:-0.611111 13:-0.895105 
100 1:-0.828571 2:-0.863636 3:-1 4:-1 5:-0.863636 6:-0.909091 7:-1 8:-0.862069 9:-0.838028 10:-0.88189 11:-0.759036 12:-0.166667 13:-0.846154 
100 1:-0.828571 2:-0.909091 3:-0.666667 4:-0.909091 5:-0.909091 6:-0.909091 7:-1 8:-0.785441 9:-0.767606 10:-0.791339 11:-0.493976 12:-0.333333 13:-0.734266 
100 1:-0.828571 2:-0.909091 3:-1 4:-0.818182 5:-0.909091 6:-0.909091 7:-1 8:-0.808429 9:-0.711268 10:-0.755906 11:-0.46988 12:-0.277778 13:-0.769231 
100 1:-1 2:-0.954545 3:-1 4:-1 5:-0.954545 6:-0.954545 7:-1 8:-0.94636 9:-0.957746 10:-0.940945 11:-0.951807 12:-0.444444 13:-0.944056 
100 1:-0.885714 2:-0.5 3:-1 4:-0.863636 5:-0.5 6:-0.5 7:-1 8:-0.532567 9:-0.478873 10:-0.389764 11:-0.493976 12:-0.166667 13:-0.531469 
100 1:-0.828571 2:-0.909091 3:-1 4:-0.909091 5:-0.909091 6:-0.909091 7:-1 8:-0.655172 9:-0.514085 10:-0.527559 11:-0.421687 12:-0.222222 13:-0.608392 
100 1:-1 2:-0.863636 3:-1 4:-1 5:-0.863636 6:-0.863636 7:-1 8:-0.854406 9:-0.788732 10:-0.834646 11:-0.662651 12:-0.444444 13:-0.846154 
100 1:-1 2:-1 3:-1 4:-1 5:-1 6:-1 7:-1 8:-0.938697 9:-0.880282 10:-0.913386 11:-0.686747 12:-0.5 13:-0.937063 
100 1:-1 2:-1 3:-1 4:-1 5:-1 6:-1 7:-1 8:-0.931034 9:-0.887324 10:-0.909449 11:-0.759036 12:-0.444444 13:-0.93007 
100 1:-0.942857 2:-0.954545 3:-0.333333 4:-1 5:-0.954545 6:-0.954545 7:-1 8:-0.923372 9:-0.93662 10:-0.905512 11:-0.927711 12:-0.444444 13:-0.902098 
100 1:-0.828571 2:-1 3:-1 4:-1 5:-1 6:-1 7:-1 8:-0.969349 9:-0.929577 10:-0.944882 11:-0.807229 12:-0.666667 13:-0.944056 
100 1:-1 2:-0.954545 3:-1 4:-1 5:-0.954545 6:-1 7:-1 8:-0.969349 9:-0.943662 10:-0.96063 11:-0.879518 12:-0.666667 13:-0.958042 
100 1:-0.885714 2:-1 3:-1 4:-0.909091 5:-1 6:-1 7:-1 8:-0.954023 9:-0.93662 10:-0.929134 11:-0.831325 12:-0.555556 13:-0.916084 
100 1:-0.942857 2:-1 3:-1 4:-0.954545 5:-1 6:-1 7:-1 8:-0.823755 9:-0.760563 10:-0.885827 11:-0.445783 12:-0.611111 13:-0.783217 
100 1:-0.828571 2:-0.863636 3:-1 4:-1 5:-0.863636 6:-0.863636 7:-1 8:-0.923372 9:-0.767606 10:-0.799213 11:-0.518072 12:-0.444444 13:-0.902098 
16.31834601712103 1:-0.142857 2:-0.5 3:-1 4:-0.909091 5:-0.5 6:-0.5 7:-0.52381 8:-0.264368 9:-0.0211268 10:-0.0511811 11:0.662651 12:-0.0555556 13:-0.202797 
100 1:-0.942857 2:-0.909091 3:-1 4:-0.954545 5:-0.909091 6:-0.954545 7:-1 8:-0.885057 9:-0.816901 10:-0.822835 11:-0.783133 12:-0.388889 13:-0.86014 
100 1:-0.942857 2:-1 3:-1 4:-1 5:-1 6:-1 7:-1 8:-0.900383 9:-0.84507 10:-0.925197 11:-0.759036 12:-0.722222 13:-0.902098 
100 1:-1 2:-1 3:-1 4:-1 5:-1 6:-1 7:-1 8:-0.984674 9:-0.985915 10:-0.976378 11:-0.975904 12:-0.777778 13:-0.979021 
100 1:-0.771429 2:-1 3:-1 4:-0.5 5:-1 6:-1 7:-1 8:-0.869732 9:-0.838028 10:-0.826772 11:-0.783133 12:-0.555556 13:-0.762238 
100 1:-0.428571 2:-0.772727 3:-1 4:-1 5:-0.772727 6:-0.818182 7:-0.619048 8:-0.777778 9:-0.753521 10:-0.771654 11:-0.542169 12:0.111111 13:-0.713287 
100 1:-0.942857 2:-0.727273 3:-1 4:-0.909091 5:-0.727273 6:-0.727273 7:-1 8:-0.685824 9:-0.612676 10:-0.614173 11:-0.493976 12:-0.277778 13:-0.678322 
100 1:-0.428571 2:-0.318182 3:-0.666667 4:-1 5:-0.318182 6:-0.318182 7:-0.238095 8:-0.37931 9:-0.316901 10:-0.389764 11:-0.0843373 12:0.166667 13:-0.34965 
100 1:-1 2:-1 3:-1 4:-1 5:-1 6:-1 7:-1 8:-0.793103 9:-0.823944 10:-0.893701 11:-1 12:-0.888889 13:-0.804196 
100 1:-0.828571 2:-0.818182 3:-1 4:-0.954545 5:-0.818182 6:-0.863636 7:-1 8:-0.785441 9:-0.767606 10:-0.787402 11:-0.662651 12:-0.0555556 13:-0.769231 
100 1:-0.942857 2:-0.795455 3:-1 4:-0.954545 5:-0.772727 6:-0.772727 7:-0.809524 8:-0.463602 9:-0.316901 10:-0.216535 11:0.277108 12:-0.388889 13:-0.468531 
100 1:-0.371429 2:-1 3:-1 4:-0.909091 5:-1 6:-1 7:-1 8:-0.685824 9:-0.626761 10:-0.732283 11:-0.13253 12:-0.555556 13:-0.615385 
12.98524804860491 1:-0.0285714 2:-0.863636 3:-1 4:-1 5:-0.818182 6:-0.818182 7:-1 8:-0.862069 9:-0.830986 10:-0.862205 11:-0.662651 12:-0.0555556 13:-0.748252 
85.97178190493743 1:-0.942857 2:-0.681818 3:-1 4:-1 5:-0.681818 6:-0.909091 7:-0.714286 8:-0.915709 9:-0.78169 10:-0.830709 11:-0.638554 12:-0.111111 13:-0.909091 
100 1:-0.942857 2:-0.681818 3:-1 4:-1 5:-0.681818 6:-0.681818 7:-0.333333 8:-0.862069 9:-0.704225 10:-0.744094 11:-0.566265 12:-0.333333 13:-0.853147 
100 1:-0.942857 2:-0.954545 3:-1 4:-0.954545 5:-0.954545 6:-0.954545 7:-1 8:-0.908046 9:-0.873239 10:-0.885827 11:-0.710843 12:-0.5 13:-0.874126 
100 1:-0.6 2:-0.181818 3:-1 4:-0.681818 5:-0.181818 6:-0.181818 7:0.047619 8:-0.54023 9:-0.457746 10:-0.401575 11:-0.445783 12:-0.0555556 13:-0.475524 
100 1:-0.885714 2:-1 3:-1 4:-1 5:-1 6:-1 7:-1 8:-0.969349 9:-0.992958 10:-0.988189 11:-0.975904 12:-0.833333 13:-0.951049 
100 1:-0.885714 2:-0.954545 3:-1 4:-0.909091 5:-0.954545 6:-0.954545 7:-1 8:-0.823755 9:-0.795775 10:-0.830709 11:-0.73494 12:-0.5 13:-0.804196 
100 1:-0.885714 2:-1 3:-1 4:-1 5:-1 6:-1 7:-1 8:-0.89272 9:-0.852113 10:-0.909449 11:-0.518072 12:-0.722222 13:-0.853147 
100 1:-0.828571 2:-0.727273 3:-1 4:-0.909091 5:-0.727273 6:-0.818182 7:-1 8:-0.739464 9:-0.669014 10:-0.704724 11:-0.445783 12:-0.277778 13:-0.706294 
100 1:-0.942857 2:-0.954545 3:-1 4:-1 5:-0.954545 6:-0.954545 7:-1 8:-0.908046 9:-0.943662 10:-0.913386 11:-0.903614 12:-0.611111 13:-0.902098 
100 1:-0.885714 2:-0.863636 3:-1 4:-0.954545 5:-0.863636 6:-0.863636 7:-1 8:-0.747126 9:-0.788732 10:-0.779528 11:-0.662651 12:-0.333333 13:-0.741259 
100 1:-0.885714 2:-0.954545 3:-1 4:-1 5:-0.954545 6:-1 7:-1 8:-0.900383 9:-0.901408 10:-0.909449 11:-0.855422 12:-0.555556 13:-0.888112 
0.9458903068995578 1:0.6 2:-0.363636 4:-0.5 5:-0.363636 6:-0.409091 7:-0.333333 8:-0.318008 9:-0.176056 10:-0.275591 11:-0.0361446 12:0.111111 13:-0.0769231 
100 1:-0.771429 2:-0.909091 3:-1 4:-0.909091 5:-0.909091 6:-0.909091 7:-1 8:-0.739464 9:-0.71831 10:-0.712598 11:-0.542169 12:-0.444444 13:-0.713287 
100 1:-0.771429 2:-0.954545 3:-1 4:-1 5:-0.954545 6:-0.954545 7:-1 8:-0.846743 9:-0.866197 10:-0.866142 11:-0.73494 12:-0.444444 13:-0.804196 
100 1:-0.828571 2:-0.863636 3:-1 4:-1 5:-0.863636 6:-0.863636 7:-1 8:-0.739464 9:-0.802817 10:-0.783465 11:-0.590361 12:-0.333333 13:-0.727273 
100 1:-1 2:-0.954545 3:-1 4:-1 5:-0.954545 6:-1 7:-1 8:-0.961686 9:-0.964789 10:-0.96063 11:-0.927711 12:-0.555556 13:-0.958042 
100 1:-1 2:-0.954545 3:-1 4:-0.954545 5:-0.954545 6:-0.954545 7:-1 8:-0.923372 9:-0.929577 10:-0.933071 11:-0.831325 12:-0.5 13:-0.916084 
66.58494910513329 1:-0.828571 2:-0.227273 3:-1 4:-0.545455 5:-0.227273 6:-0.227273 7:-0.619048 8:-0.601533 9:-0.584507 10:-0.484252 11:-0.277108 12:-0.166667 13:-0.538462 
100 1:-0.942857 2:-1 3:-1 4:-1 5:-1 6:-1 7:-1 8:-0.94636 9:-0.964789 10:-1 11:-0.927711 12:-1 13:-0.923077 
100 1:-0.714286 2:-0.772727 3:-1 4:-1 5:-0.772727 6:-0.818182 7:-0.809524 8:-0.655172 9:-0.549296 10:-0.566929 11:-0.301205 12:-0.0555556 13:-0.594406 
100 1:-0.942857 2:-0.954545 3:-1 4:-1 5:-0.954545 6:-0.954545 7:-1 8:-0.846743 9:-0.795775 10:-0.755906 11:-0.518072 12:-0.5 13:-0.804196 
100 1:-0.942857 2:-0.909091 3:-1 4:-0.954545 5:-0.909091 6:-0.954545 7:-1 8:-0.869732 9:-0.823944 10:-0.830709 11:-0.759036 12:-0.388889 13:-0.853147 
100 1:-0.828571 2:-0.909091 3:-1 4:-1 5:-0.909091 6:-1 7:-1 8:-0.931034 9:-0.880282 10:-0.905512 11:-0.710843 12:-0.277778 13:-0.909091 
100 1:-0.942857 2:-1 3:-1 4:-1 5:-1 6:-1 7:-1 8:-0.915709 9:-0.887324 10:-0.917323 11:-0.807229 12:-0.555556 13:-0.909091 
100 1:-1 2:-1 3:-1 4:-1 5:-1 6:-1 7:-1 8:-0.984674 9:-0.992958 10:-0.980315 11:-0.975904 12:-0.722222 13:-0.979021 
100 1:-0.942857 2:-0.909091 3:-1 4:-0.954545 5:-0.909091 6:-0.954545 7:-1 8:-0.89272 9:-0.838028 10:-0.858268 11:-0.73494 12:-0.388889 13:-0.86014 
100 1:-0.885714 2:-0.727273 3:-1 4:-1 5:-0.727273 6:-0.772727 7:-0.809524 8:-0.762452 9:-0.788732 10:-0.830709 11:-0.662651 12:-0.333333 13:-0.762238 
100 1:-0.942857 2:-0.954545 3:-0.666667 4:-1 5:-0.954545 6:-0.954545 7:-1 8:-0.938697 9:-0.915493 10:-0.917323 11:-0.855422 12:-0.611111 13:-0.909091 
100 1:-0.771429 2:-0.818182 3:-1 4:-1 5:-0.818182 6:-0.863636 7:-0.809524 8:-0.846743 9:-0.739437 10:-0.708661 11:-0.493976 12:0.0555556 13:-0.825175 
100 1:-0.942857 2:-0.909091 3:-1 4:-1 5:-0.909091 6:-0.909091 7:-1 8:-0.846743 9:-0.852113 10:-0.822835 11:-0.686747 12:-0.277778 13:-0.832168 
100 1:-0.885714 2:-1 3:-1 4:-1 5:-1 6:-1 7:-1 8:-0.961686 9:-0.950704 10:-0.964567 11:-0.879518 12:-0.666667 13:-0.93007 
100 1:-1 2:-1 3:-1 4:-1 5:-1 6:-1 7:-1 8:-0.931034 9:-0.922535 10:-0.92126 11:-0.783133 12:-0.666667 13:-0.916084 
100 1:-0.942857 2:-1 3:-1 4:-1 5:-1 6:-1 7:-1 8:-0.977011 9:-0.985915 10:-0.980315 11:-0.975904 12:-0.777778 13:-0.965035 
100 1:-0.885714 2:-0.818182 3:-1 4:-1 5:-0.818182 6:-0.818182 7:-1 8:-0.800766 9:-0.725352 10:-0.771654 11:-0.638554 12:-0.222222 13:-0.776224 
3.580491086727214 1:-0.771429 2:-0.681818 3:-1 4:-0.818182 5:-0.681818 6:-0.681818 7:-0.809524 8:-0.43295 9:-0.394366 10:-0.547244 11:-0.204819 12:-0.388889 13:-0.370629 
100 1:-0.942857 2:-1 3:-1 4:-1 5:-1 6:-1 7:-1 8:-0.94636 9:-0.943662 10:-0.937008 11:-0.879518 12:-0.611111 13:-0.937063 
100 1:-0.942857 2:-0.909091 3:-1 4:-1 5:-0.909091 6:-0.909091 7:-1 8:-0.969349 9:-0.978873 10:-0.968504 11:-0.975904 12:-0.777778 13:-0.958042 
100 1:-1 2:-0.954545 3:-1 4:-0.909091 5:-0.954545 6:-0.954545 7:-1 8:-0.94636 9:-0.950704 10:-0.940945 11:-0.855422 12:-0.722222 13:-0.93007 
100 1:-0.885714 2:-0.909091 3:-1 4:-1 5:-0.909091 6:-0.954545 7:-0.809524 8:-0.969349 9:-0.880282 10:-0.877953 11:-0.831325 12:-0.388889 13:-0.951049 
100 1:-0.6 2:-0.909091 3:-1 4:-0.5 5:-0.909091 6:-0.909091 7:-1 8:-0.816092 9:-0.795775 10:-0.795276 11:-0.638554 12:-0.333333 13:-0.699301 
20.69338601183582 1:-0.314286 2:-0.590909 3:-1 4:-1 5:-0.590909 6:-0.636364 7:-0.428571 8:-0.555556 9:-0.352113 10:-0.397638 11:-0.325301 12:0.333333 13:-0.503497 
100 1:-0.657143 2:-0.818182 3:-1 4:-1 5:-0.818182 6:-0.954545 7:-0.714286 8:-0.908046 9:-0.795775 10:-0.80315 11:-0.662651 12:0.111111 13:-0.867133 
100 1:-0.714286 2:-0.954545 3:-1 4:-0.818182 5:-0.954545 6:-0.954545 7:-1 8:-0.800766 9:-0.753521 10:-0.791339 11:-0.590361 12:-0.333333 13:-0.748252 
100 1:-1 2:-0.863636 3:-1 4:-1 5:-0.863636 6:-0.909091 7:-0.809524 8:-0.89272 9:-0.929577 10:-0.92126 11:-0.879518 12:-0.555556 13:-0.895105 
100 1:-0.885714 2:-0.909091 3:-1 4:-0.909091 5:-0.909091 6:-0.909091 7:-1 8:-0.716475 9:-0.725352 10:-0.661417 11:-0.662651 12:-0.388889 13:-0.706294 
100 1:-0.828571 2:-1 3:-1 4:-1 5:-1 6:-1 7:-1 8:-0.854406 9:-0.697183 10:-0.767717 11:-0.373494 12:-0.555556 13:-0.825175 
100 1:-0.828571 2:-0.909091 3:-1 4:-1 5:-0.909091 6:-0.909091 7:-1 8:-0.83908 9:-0.788732 10:-0.822835 11:-0.445783 12:-0.444444 13:-0.825175 
88.18645819539177 1:0.0857143 2:-0.636364 3:-0.333333 4:-0.5 5:-0.636364 6:-0.727273 7:-0.428571 8:-0.463602 9:-0.471831 10:-0.566929 11:-0.060241 12:0.111111 13:-0.265734 
100 1:-0.942857 2:-0.863636 3:-1 4:-1 5:-0.863636 6:-0.909091 7:-0.809524 8:-0.900383 9:-0.922535 10:-0.917323 11:-0.855422 12:-0.555556 13:-0.895105 
100 1:-0.885714 2:-0.727273 3:-1 4:-1 5:-0.727273 6:-0.772727 7:-1 8:-0.678161 9:-0.633803 10:-0.799213 11:-0.493976 12:-0.5 13:-0.685315 
100 1:-0.885714 2:-0.909091 3:-1 4:-1 5:-0.909091 6:-0.954545 7:-0.809524 8:-0.954023 9:-0.873239 10:-0.909449 11:-0.662651 12:-0.444444 13:-0.937063 
100 1:-0.942857 2:-0.909091 3:-1 4:-1 5:-0.909091 6:-0.909091 7:-1 8:-0.938697 9:-0.971831 10:-0.964567 11:-0.903614 12:-0.777778 13:-0.93007 
100 1:-0.828571 2:-0.863636 3:-1 4:-1 5:-0.863636 6:-0.863636 7:-1 8:-0.854406 9:-0.838028 10:-0.874016 11:-0.831325 12:-0.555556 13:-0.839161 
100 1:-0.714286 2:-0.545455 3:-0.666667 4:-0.909091 5:-0.545455 6:-0.636364 7:-0.428571 8:-0.547893 9:-0.605634 10:-0.622047 11:-0.445783 12:0.166667 13:-0.51049 
4.299945652202014 1:-0.142857 2:1 3:-1 4:-0.590909 5:1 6:1 7:-0.428571 8:1 9:1 10:1 11:0.73494 12:0.222222 13:1 
100 1:-0.828571 2:-0.863636 3:-0.666667 4:-0.954545 5:-0.863636 6:-0.863636 7:-1 8:-0.793103 9:-0.760563 10:-0.807087 11:-0.566265 12:-0.222222 13:-0.769231 
100 1:-0.828571 2:-0.818182 3:-1 4:-1 5:-0.818182 6:-0.863636 7:-0.619048 8:-0.900383 9:-0.767606 10:-0.807087 11:-0.590361 12:-0.222222 13:-0.881119 
100 1:-0.885714 2:-0.772727 3:-1 4:-0.909091 5:-0.772727 6:-0.772727 7:-1 8:-0.693487 9:-0.626761 10:-0.629921 11:-0.518072 12:-0.388889 13:-0.678322 
100 1:-0.314286 2:-0.727273 3:-1 4:-0.545455 5:-0.727273 6:-0.727273 7:-1 8:-0.655172 9:-0.633803 10:-0.653543 11:-0.325301 12:-0.166667 13:-0.51049 
100 1:-0.885714 2:-0.931818 3:-1 4:-1 5:-0.909091 6:-1 7:-1 8:-0.89272 9:-0.93662 10:-0.92126 11:-0.855422 12:-0.5 13:-0.881119 
48.65348221951789 1:0.371429 2:0.181818 3:-1 4:-0.727273 5:0.181818 6:-0.227273 7:1 8:-0.141762 9:0.176056 10:0.0590551 11:0.277108 12:0.611111 13:0.034965 
100 1:-0.942857 2:-0.909091 3:-1 4:-1 5:-0.909091 6:-0.909091 7:-1 8:-0.816092 9:-0.830986 10:-0.850394 11:-0.662651 12:-0.444444 13:-0.811189 
100 1:-0.885714 2:-0.863636 3:-1 4:-1 5:-0.863636 6:-1 7:-1 8:-0.83908 9:-0.816901 10:-0.874016 11:-0.710843 12:-0.388889 13:-0.811189 
100 1:-1 2:-1 3:-1 4:-1 5:-1 6:-1 7:-1 8:-0.977011 9:-0.964789 10:-0.972441 11:-0.879518 12:-0.777778 13:-0.972028 
100 1:-0.885714 2:-1 3:-1 4:-1 5:-1 6:-1 7:-1 8:-0.977011 9:-0.929577 10:-0.944882 11:-0.783133 12:-0.666667 13:-0.958042 
100 1:-1 2:-1 3:-1 4:-1 5:-1 6:-1 7:-1 8:-0.938697 9:-0.922535 10:-0.909449 11:-0.831325 12:-0.666667 13:-0.93007 
100 1:-1 2:-1 3:-1 4:-1 5:-1 6:-1 7:-1 8:-0.938697 9:-0.894366 10:-0.905512 11:-0.73494 12:-0.611111 13:-0.909091 
100 1:-0.2 2:-0.909091 3:-1 4:-0.772727 5:-0.909091 6:-0.954545 7:-1 8:-0.754789 9:-0.690141 10:-0.783465 11:-0.301205 12:-0.5 13:-0.622378 
100 1:-0.371429 2:-0.818182 4:-0.590909 5:-0.818182 6:-0.863636 7:-0.809524 8:-0.655172 9:-0.612676 10:-0.708661 11:-0.277108 12:-0.166667 13:-0.496503 
100 1:-0.657143 2:-0.227273 3:-1 4:-0.636364 5:-0.227273 6:-0.227273 7:-0.142857 8:-0.0574713 9:-0.0352113 10:-0.0669291 11:0.180723 12:0.0555556 13:-0.034965 
100 1:-0.885714 2:-0.863636 3:-1 4:-0.954545 5:-0.863636 6:-0.909091 7:-1 8:-0.770115 9:-0.711268 10:-0.73622 11:-0.590361 12:-0.333333 13:-0.734266 
100 1:-1 2:-1 3:-1 4:-1 5:-1 6:-1 7:-1 8:-0.823755 9:-0.760563 10:-0.751969 11:-0.421687 12:-0.666667 13:-0.811189 
100 1:-0.771429 2:-0.909091 3:-1 4:-0.863636 5:-0.909091 6:-0.909091 7:-1 8:-0.678161 9:-0.626761 10:-0.625984 11:-0.46988 12:-0.388889 13:-0.622378 
100 1:-1 2:-1 3:-1 4:-1 5:-1 6:-1 7:-1 8:-0.969349 9:-0.950704 10:-0.964567 11:-0.831325 12:-0.777778 13:-0.944056 
100 1:-0.942857 2:-0.954545 3:-1 4:-1 5:-0.954545 6:-0.954545 7:-1 8:-0.961686 9:-0.887324 10:-0.905512 11:-0.759036 12:-0.5 13:-0.951049 
100 1:-1 2:-1 3:-1 4:-1 5:-1 6:-1 7:-1 8:-0.961686 9:-0.929577 10:-0.952756 11:-0.783133 12:-0.666667 13:-0.93007 
100 1:-0.942857 2:-1 3:-1 4:-1 5:-1 6:-1 7:-1 8:-0.869732 9:-0.894366 10:-0.984252 11:-0.73494 12:-0.777778 13:-0.804196 
100 1:-0.885714 2:-1 3:-1 4:-1 5:-1 6:-1 7:-1 8:-0.977011 9:-0.971831 10:-0.956693 11:-0.927711 12:-0.611111 13:-0.958042 
100 1:-0.942857 2:-1 3:-1 4:-1 5:-1 6:-1 7:-1 8:-0.977011 9:-0.922535 10:-0.948819 11:-0.73494 12:-0.722222 13:-0.916084 
100 1:-1 2:-0.818182 3:-1 4:-1 5:-0.818182 6:-0.818182 7:-1 8:-0.869732 9:-0.894366 10:-0.854331 11:-0.73494 12:-0.555556 13:-0.874126 
100 1:-0.942857 2:-1 3:-1 4:-1 5:-1 6:-1 7:-1 8:-0.923372 9:-0.929577 10:-0.992126 11:-0.783133 12:-0.944444 13:-0.86014 
100 1:-0.828571 2:-0.318182 3:-1 4:-0.909091 5:-0.318182 6:-0.318182 7:0.142857 8:-0.43295 9:-0.408451 10:-0.535433 11:-0.277108 12:-0.388889 13:-0.440559 
100 1:-0.885714 2:-0.636364 3:-1 4:-0.909091 5:-0.636364 6:-0.636364 7:-1 8:-0.624521 9:-0.521127 10:-0.515748 11:-0.421687 12:-0.222222 13:-0.608392 
100 1:-0.828571 2:-1 3:-1 4:-0.954545 5:-1 6:-1 7:-1 8:-0.961686 9:-0.950704 10:-0.948819 11:-0.879518 12:-0.777778 13:-0.93007 
100 1:-0.542857 2:-0.909091 3:-1 4:-1 5:-0.909091 6:-0.909091 7:-0.809524 8:-0.89272 9:-0.873239 10:-0.889764 11:-0.73494 12:-0.444444 13:-0.839161 
100 1:-1 2:-1 3:-1 4:-1 5:-1 6:-1 7:-1 8:-0.977011 9:-0.964789 10:-0.972441 11:-0.879518 12:-0.722222 13:-0.965035 
100 1:-0.942857 2:-0.727273 3:-1 4:-1 5:-0.727273 6:-0.909091 7:-0.428571 8:-0.900383 9:-0.84507 10:-0.88189 11:-0.73494 12:-0.5 13:-0.874126 
100 1:-1 2:-1 3:-1 4:-1 5:-1 6:-1 7:-1 8:-0.992337 9:-1 10:-0.980315 11:-1 12:-0.722222 13:-0.986014 
100 1:-0.885714 2:-0.818182 3:-1 4:-1 5:-0.818182 6:-0.863636 7:-0.809524 8:-0.747126 9:-0.753521 10:-0.779528 11:-0.590361 12:-0.333333 13:-0.748252 
100 1:-1 2:-1 3:-1 4:-1 5:-1 6:-1 7:-1 8:-0.969349 9:-0.978873 10:-0.964567 11:-0.927711 12:-0.777778 13:-0.965035 
100 1:-1 2:-1 3:-1 4:-1 5:-1 6:-1 7:-1 8:-0.977011 9:-0.985915 10:-0.964567 11:-0.975904 12:-0.833333 13:-0.972028 
100 1:-0.714286 2:-0.454545 3:-1 4:-0.636364 5:-0.454545 6:-0.5 7:-0.52381 8:-0.348659 9:-0.422535 10:-0.488189 11:-0.0120482 12:-0.0555556 13:-0.307692 
24.95681479667472 1:0.314286 2:0.204545 3:-1 4:-0.227273 5:0.227273 6:0.181818 7:0.619048 8:0.318008 9:0.232394 10:0.354331 11:0.614458 12:-0.0555556 13:0.503497 
100 1:-1 2:-1 3:-1 4:-1 5:-1 6:-1 7:-1 8:-0.977011 9:-0.93662 10:-0.956693 11:-0.783133 12:-0.722222 13:-0.93007 
0.2060488611891611 1:0.257143 2:-0.318182 3:-1 4:-0.681818 5:-0.318182 6:-0.454545 7:-0.047619 8:-0.233716 9:-0.0915493 10:-0.248031 11:0.349398 12:0.388889 13:-0.0909091 
100 1:-1 2:-1 3:-1 4:-0.181818 5:-1 6:-1 7:-1 8:-0.94636 9:-0.915493 10:-0.929134 11:-0.783133 12:-0.611111 13:-0.769231 
100 1:-0.657143 2:-0.727273 3:-1 4:-1 5:-0.727273 6:-0.727273 7:-1 8:-0.777778 9:-0.669014 10:-0.724409 11:-0.590361 12:-0.388889 13:-0.748252 
100 1:-0.714286 2:-0.795455 3:-1 4:-0.909091 5:-0.772727 6:-0.818182 7:-1 8:-0.639847 9:-0.507042 10:-0.515748 11:-0.0843373 12:-0.111111 13:-0.615385 
-100 1:-0.542857 2:-0.818182 3:-1 4:-0.590909 5:-0.818182 6:-0.818182 7:-0.809524 8:-0.754789 9:-0.788732 10:-0.779528 11:-0.662651 12:-0.388889 13:-0.65035 
-100 1:-0.771429 2:-0.727273 3:-1 4:-1 5:-0.727273 6:-0.727273 7:-0.809524 8:-0.670498 9:-0.549296 10:-0.547244 11:-0.445783 12:-0.166667 13:-0.643357 
-100 1:-1 2:-1 3:-1 4:-1 5:-1 6:-1 7:-1 8:-1 9:-1 10:-0.992126 11:-1 12:-0.888889 13:-1 
-100 1:-0.828571 2:-0.863636 3:-1 4:-1 5:-0.863636 6:-0.863636 7:-1 8:-0.739464 9:-0.683099 10:-0.704724 11:-0.46988 12:-0.333333 13:-0.734266 
-100 1:-0.885714 2:-0.863636 3:-1 4:-1 5:-0.863636 6:-0.863636 7:-0.809524 8:-0.754789 9:-0.697183 10:-0.688976 11:-0.518072 12:-0.333333 13:-0.748252 
-100 1:-0.885714 2:-1 3:-1 4:-1 5:-1 6:-1 7:-1 8:-0.961686 9:-0.950704 10:-0.972441 11:-0.879518 12:-0.833333 13:-0.944056 
-100 1:-1 2:-1 3:-1 4:-1 5:-1 6:-1 7:-1 8:-0.954023 9:-0.93662 10:-0.944882 11:-0.831325 12:-0.611111 13:-0.93007 
-100 1:-0.828571 2:-0.886364 3:-1 4:-1 5:-0.954545 6:-0.954545 7:-1 8:-0.731801 9:-0.669014 10:-0.606299 11:-0.325301 12:-0.388889 13:-0.727273 
-100 1:-0.942857 2:-1 3:-1 4:-1 5:-1 6:-1 7:-1 8:-0.969349 9:-0.971831 10:-0.976378 11:-0.927711 12:-0.833333 13:-0.965035 
-100 1:-1 2:-1 3:-1 4:-1 5:-1 6:-1 7:-1 8:-0.931034 9:-0.873239 10:-0.889764 11:-0.686747 12:-0.611111 13:-0.902098 
-100 1:-1 2:-1 3:-1 4:-1 5:-1 6:-1 7:-1 8:-0.969349 9:-0.964789 10:-0.968504 11:-0.903614 12:-0.666667 13:-0.965035 
-100 1:-1 2:-0.954545 3:-1 4:-1 5:-0.954545 6:-0.954545 7:-1 8:-0.961686 9:-0.908451 10:-0.933071 11:-0.807229 12:-0.611111 13:-0.93007 
-100 1:-0.657143 2:-0.681818 3:-0.666667 4:-0.863636 5:-0.681818 6:-0.681818 7:-1 8:-0.662835 9:-0.683099 10:-0.69685 11:-0.614458 12:0.0555556 13:-0.615385 
-100 1:-0.942857 2:-0.818182 3:-1 4:-1 5:-0.818182 6:-1 7:-0.619048 8:-0.931034 9:-0.908451 10:-0.917323 11:-0.903614 12:-0.333333 13:-0.923077 
-100 1:-0.885714 2:-1 3:-1 4:-1 5:-1 6:-1 7:-1 8:-0.931034 9:-0.908451 10:-0.937008 11:-0.710843 12:-0.722222 13:-0.888112 
-100 1:-0.828571 2:-1 3:-1 4:-0.954545 5:-1 6:-1 7:-1 8:-0.908046 9:-0.823944 10:-0.862205 11:-0.590361 12:-0.555556 13:-0.853147 
-100 1:-0.485714 2:-0.772727 3:-1 4:-0.818182 5:-0.772727 6:-0.772727 7:-1 8:-0.616858 9:-0.612676 10:-0.622047 11:-0.46988 12:-0.333333 13:-0.552448 
-100 1:-1 2:-1 3:-1 4:-1 5:-1 6:-1 7:-1 8:-0.94636 9:-0.915493 10:-0.92126 11:-0.783133 12:-0.611111 13:-0.923077 
-100 1:-0.885714 2:-0.909091 3:-1 4:-0.954545 5:-0.909091 6:-0.909091 7:-1 8:-0.816092 9:-0.795775 10:-0.811024 11:-0.614458 12:-0.444444 13:-0.797203 
-100 1:-0.942857 2:-0.75 3:-1 4:-1 5:-0.727273 6:-0.727273 7:-0.809524 8:-0.609195 9:-0.669014 10:-0.669291 11:-0.542169 12:-0.333333 13:-0.622378 
-100 1:-0.942857 2:-0.954545 3:-1 4:-1 5:-0.954545 6:-0.954545 7:-1 8:-0.923372 9:-0.93662 10:-0.92126 11:-0.879518 12:-0.555556 13:-0.916084 
-100 1:-1 2:-0.909091 3:-1 4:-1 5:-0.909091 6:-0.954545 7:-1 8:-1 9:-0.978873 10:-0.96063 11:-0.951807 12:-0.555556 13:-0.993007 
-100 1:-0.828571 2:-0.795455 3:-1 4:-0.954545 5:-0.863636 6:-0.863636 7:-0.809524 8:-0.670498 9:-0.605634 10:-0.57874 11:-0.204819 12:-0.222222 13:-0.664336 
-100 1:-0.942857 2:-0.954545 3:-1 4:-0.954545 5:-0.954545 6:-0.954545 7:-1 8:-0.961686 9:-0.971831 10:-0.964567 11:-0.927711 12:-0.666667 13:-0.944056 
-100 1:-0.942857 2:-0.954545 3:-1 4:-1 5:-0.954545 6:-0.954545 7:-1 8:-0.931034 9:-0.943662 10:-0.937008 11:-0.903614 12:-0.555556 13:-0.923077 
-100 1:-0.828571 2:-0.863636 3:-1 4:-1 5:-0.863636 6:-0.863636 7:-1 8:-0.693487 9:-0.690141 10:-0.751969 11:-0.46988 12:-0.388889 13:-0.671329 
-52.44712433527757 1:-1 2:-1 3:-1 4:-1 5:-1 6:-1 7:-1 8:-0.94636 9:-0.915493 10:-0.92126 11:-0.783133 12:-0.611111 13:-0.909091 
-100 1:-0.942857 2:-1 3:-1 4:-1 5:-1 6:-1 7:-1 8:-0.954023 9:-0.93662 10:-0.937008 11:-0.831325 12:-0.611111 13:-0.923077 
-100 1:-1 2:-1 3:-1 4:-1 5:-1 6:-1 7:-1 8:-0.984674 9:-0.971831 10:-0.992126 11:-0.927711 12:-1 13:-0.951049 
-100 1:-0.942857 2:-0.954545 3:-1 4:-1 5:-0.954545 6:-0.954545 7:-1 8:-0.923372 9:-0.901408 10:-0.925197 11:-0.73494 12:-0.5 13:-0.916084 
-100 1:-1 2:-1 3:-1 4:-1 5:-1 6:-1 7:-1 8:-0.984674 9:-0.978873 10:-0.992126 11:-0.927711 12:-0.944444 13:-0.972028 
-100 1:-0.828571 2:-0.909091 3:-1 4:-0.818182 5:-0.909091 6:-0.909091 7:-1 8:-0.831418 9:-0.84507 10:-0.850394 11:-0.638554 12:-0.333333 13:-0.79021 
-100 1:-0.942857 2:-0.909091 3:-1 4:-1 5:-0.909091 6:-0.909091 7:-1 8:-0.862069 9:-0.887324 10:-0.858268 11:-0.807229 12:-0.388889 13:-0.86014 
-63.99394256726291 1:-1 2:-1 3:-1 4:-1 5:-1 6:-1 7:-1 8:-0.984674 9:-0.992958 10:-1 11:-0.975904 12:-1 13:-0.979021 
-100 1:-0.942857 2:-0.954545 3:-1 4:-1 5:-0.954545 6:-1 7:-1 8:-0.938697 9:-0.887324 10:-0.913386 11:-0.759036 12:-0.333333 13:-0.923077 
-100 1:-0.885714 2:-0.954545 3:-1 4:-1 5:-0.954545 6:-0.954545 7:-1 8:-0.900383 9:-0.922535 10:-0.913386 11:-0.855422 12:-0.611111 13:-0.888112 
-100 1:-1 2:-0.954545 3:-1 4:-1 5:-0.954545 6:-0.954545 7:-1 8:-0.984674 9:-0.985915 10:-0.980315 11:-0.975904 12:-0.722222 13:-0.979021 
-100 1:0.0857143 2:-0.181818 3:-1 4:-0.5 5:-0.181818 6:-0.409091 7:0.047619 8:-0.118774 9:0.105634 10:-0.0669291 11:0.39759 12:0.5 13:0.020979 
-100 1:-0.828571 2:-0.954545 3:-1 4:-0.954545 5:-0.954545 6:-0.954545 7:-1 8:-0.885057 9:-0.84507 10:-0.866142 11:-0.662651 12:-0.555556 13:-0.853147 
-100 1:-1 2:-0.909091 3:-1 4:-1 5:-0.863636 6:-1 7:-1 8:-0.869732 9:-0.915493 10:-0.905512 11:-0.831325 12:-0.5 13:-0.874126 
-100 1:-0.942857 2:-1 3:-1 4:-1 5:-1 6:-1 7:-1 8:-0.954023 9:-0.964789 10:-0.988189 11:-0.903614 12:-0.833333 13:-0.923077 
-100 1:-0.828571 2:-0.863636 3:-1 4:-0.954545 5:-0.863636 6:-0.863636 7:-1 8:-0.83908 9:-0.859155 10:-0.862205 11:-0.638554 12:-0.388889 13:-0.79021 
-100 1:-0.771429 2:-0.727273 3:-1 4:-0.954545 5:-0.727273 6:-0.727273 7:-1 8:-0.724138 9:-0.774648 10:-0.751969 11:-0.638554 12:-0.222222 13:-0.692308 
-100 1:-1 2:-0.818182 3:-1 4:-1 5:-0.818182 6:-0.818182 7:-0.714286 8:-0.908046 9:-0.894366 10:-0.870079 11:-0.831325 12:-0.222222 13:-0.881119 
-100 1:-0.428571 2:-0.727273 3:-1 4:-0.636364 5:-0.727273 6:-0.772727 7:-1 8:-0.54023 9:-0.56338 10:-0.566929 11:-0.228916 12:-0.222222 13:-0.447552 
-100 1:-0.942857 2:-0.954545 3:-1 4:-1 5:-0.954545 6:-0.954545 7:-1 8:-0.931034 9:-0.93662 10:-0.925197 11:-0.855422 12:-0.444444 13:-0.895105 
-25.87466913837866 1:-1 2:-1 3:-1 4:-1 5:-1 6:-1 7:-1 8:-1 9:-0.978873 10:-0.980315 11:-0.927711 12:-0.777778 13:-0.972028 
-100 1:-0.771429 2:-0.954545 3:-1 4:-1 5:-0.954545 6:-0.954545 7:-1 8:-0.900383 9:-0.823944 10:-0.846457 11:-0.759036 12:-0.444444 13:-0.853147 
-100 1:-1 2:-1 3:-1 4:-1 5:-1 6:-1 7:-1 8:-0.908046 9:-0.830986 10:-0.850394 11:-0.590361 12:-0.611111 13:-0.888112 
-100 1:-0.885714 2:-0.954545 3:-1 4:-0.954545 5:-0.954545 6:-0.954545 7:-1 8:-0.923372 9:-0.887324 10:-0.909449 11:-0.662651 12:-0.5 13:-0.881119 
-100 1:-0.771429 2:-1 3:-1 4:-1 5:-1 6:-1 7:-1 8:-0.938697 9:-0.887324 10:-0.913386 11:-0.759036 12:-0.666667 13:-0.888112 
-100 1:-0.828571 2:-0.954545 3:-1 4:-0.954545 5:-0.954545 6:-0.954545 7:-1 8:-0.89272 9:-0.929577 10:-0.905512 11:-0.879518 12:-0.5 13:-0.867133 
-100 1:-0.942857 2:-0.863636 3:-1 4:-1 5:-0.863636 6:-0.863636 7:-0.809524 8:-0.915709 9:-0.873239 10:-0.885827 11:-0.831325 12:-0.277778 13:-0.909091 
-100 1:-0.828571 2:-0.863636 3:-1 4:-0.909091 5:-0.863636 6:-0.954545 7:-1 8:-0.816092 9:-0.725352 10:-0.724409 11:-0.373494 12:-0.333333 13:-0.713287 
-100 1:-0.771429 2:-0.818182 3:-1 4:-0.818182 5:-0.818182 6:-0.863636 7:-1 8:-0.632184 9:-0.612676 10:-0.681102 11:-0.46988 12:-0.333333 13:-0.601399 
-100 1:-0.485714 2:-0.772727 3:-0.666667 4:-0.909091 5:-0.772727 6:-0.818182 7:-0.714286 8:-0.708812 9:-0.683099 10:-0.669291 11:-0.445783 12:-0.0555556 13:-0.643357 
-68.75885713833537 1:-1 2:-1 3:-1 4:-1 5:-1 6:-1 7:-1 8:-0.915709 9:-0.908451 10:-0.933071 11:-0.73494 12:-0.611111 13:-0.902098 
-100 1:-1 2:-0.954545 3:-1 4:-1 5:-0.954545 6:-1 7:-1 8:-0.977011 9:-0.964789 10:-0.972441 11:-0.903614 12:-0.666667 13:-0.972028 
-100 1:-0.885714 2:-1 3:-1 4:-0.909091 5:-1 6:-1 7:-1 8:-0.969349 9:-0.957746 10:-0.964567 11:-0.879518 12:-0.666667 13:-0.93007 
-100 1:-0.771429 2:-0.75 3:-1 4:-0.954545 5:-0.727273 6:-0.727273 7:-1 8:-0.563218 9:-0.556338 10:-0.606299 11:-0.180723 12:-0.0555556 13:-0.538462 
-100 1:-0.885714 2:-0.954545 3:-1 4:-0.909091 5:-0.954545 6:-0.954545 7:-1 8:-0.823755 9:-0.823944 10:-0.783465 11:-0.783133 12:-0.555556 13:-0.804196 
-100 1:-0.942857 2:-0.818182 3:-1 4:-1 5:-0.818182 6:-0.909091 7:-1 8:-0.877395 9:-0.887324 10:-0.925197 11:-0.807229 12:-0.611111 13:-0.874126 
-100 1:-1 2:-1 3:-1 4:-1 5:-1 6:-1 7:-1 8:-0.923372 9:-0.852113 10:-0.874016 11:-0.662651 12:-0.611111 13:-0.895105 
-100 1:-0.942857 2:-0.909091 3:-0.333333 4:-0.636364 5:-0.909091 6:-0.909091 7:-1 8:-0.885057 9:-0.894366 10:-0.885827 11:-0.73494 12:-0.277778 13:-0.811189 
-95.90906138950402 1:-0.6 2:-0.636364 3:-1 4:-0.818182 5:-0.636364 6:-0.636364 7:-0.333333 8:-0.624521 9:-0.549296 10:-0.476378 11:-0.349398 12:-0.166667 13:-0.573427 
-100 1:-1 2:-1 3:-1 4:-1 5:-1 6:-1 7:-1 8:-0.915709 9:-0.830986 10:-0.858268 11:-0.590361 12:-0.611111 13:-0.895105 
-100 1:-0.828571 2:-0.818182 3:-1 4:-0.909091 5:-0.818182 6:-0.909091 7:-1 8:-0.800766 9:-0.788732 10:-0.822835 11:-0.614458 12:-0.388889 13:-0.776224 
-100 1:-0.942857 2:-0.863636 3:-1 4:-1 5:-0.863636 6:-0.863636 7:-1 8:-0.83908 9:-0.767606 10:-0.818898 11:-0.614458 12:-0.555556 13:-0.811189 
-100 1:-0.771429 2:-0.954545 3:-1 4:-0.772727 5:-0.954545 6:-0.954545 7:-1 8:-0.89272 9:-0.894366 10:-0.897638 11:-0.807229 12:-0.555556 13:-0.832168 
-100 1:-0.942857 2:-0.954545 3:-1 4:-1 5:-0.954545 6:-0.954545 7:-1 8:-0.869732 9:-0.816901 10:-0.834646 11:-0.614458 12:-0.444444 13:-0.846154 
-100 1:-1 2:-1 3:-1 4:-1 5:-1 6:-1 7:-1 8:-0.900383 9:-0.788732 10:-0.826772 11:-0.518072 12:-0.611111 13:-0.874126 
-100 1:-0.885714 2:-0.590909 3:-1 4:-0.818182 5:-0.590909 6:-0.590909 7:-0.238095 8:-0.639847 9:-0.633803 10:-0.602362 11:-0.445783 12:-0.166667 13:-0.622378 
-100 1:-0.942857 2:-1 3:-1 4:-1 5:-1 6:-1 7:-1 8:-0.961686 9:-0.971831 10:-0.988189 11:-0.927711 12:-0.833333 13:-0.937063 
-100 1:-0.257143 2:-0.727273 3:-1 4:-0.909091 5:-0.727273 6:-0.772727 7:-0.619048 8:-0.586207 9:-0.570423 10:-0.633858 11:-0.156627 12:0.166667 13:-0.51049 
-100 1:-0.257143 2:-0.0454545 3:-1 4:-0.954545 5:-0.0454545 6:-0.272727 7:0.428571 8:-0.172414 9:-0.0985915 10:-0.15748 11:0.13253 13:-0.111888 
-100 1:-0.885714 2:-1 3:-1 4:-1 5:-1 6:-1 7:-1 8:-0.954023 9:-0.964789 10:-0.956693 11:-0.903614 12:-0.611111 13:-0.937063 
-100 1:-0.771429 2:-0.545455 3:-1 4:-0.818182 5:-0.545455 6:-0.545455 7:-0.619048 8:-0.624521 9:-0.661972 10:-0.586614 11:-0.542169 12:-0.222222 13:-0.594406 
-100 1:-0.885714 2:-0.840909 3:-1 4:-1 5:-0.818182 6:-0.818182 7:-0.809524 8:-0.632184 9:-0.612676 10:-0.53937 11:-0.180723 12:-0.222222 13:-0.643357 
-100 1:-0.142857 2:-0.5 3:-1 4:-0.863636 5:-0.5 6:-0.590909 7:-0.047619 8:-0.333333 9:-0.288732 10:-0.318898 11:0.0120482 12:-0.0555556 13:-0.258741 
-25.24726282948697 1:-0.714286 2:-0.863636 3:0.666667 4:-0.818182 5:-0.863636 6:-0.863636 7:-1 8:-0.831418 9:-0.802817 10:-0.84252 11:-0.566265 12:-0.333333 13:-0.741259 
-100 1:-0.771429 2:-0.818182 3:-0.666667 4:-0.909091 5:-0.818182 6:-0.818182 7:-1 8:-0.701149 9:-0.739437 10:-0.720472 11:-0.590361 12:-0.277778 13:-0.671329 
-100 1:-0.942857 2:-0.545455 3:-1 4:-1 5:-0.545455 6:-0.590909 7:-0.047619 8:-0.816092 9:-0.676056 10:-0.712598 11:-0.518072 12:-0.388889 13:-0.818182 
-100 1:-0.6 2:-1 3:-1 4:-0.909091 5:-1 6:-1 7:-1 8:-0.89272 9:-0.823944 10:-0.885827 11:-0.710843 12:-0.611111 13:-0.832168 
-100 1:-1 2:-0.863636 3:-1 4:-1 5:-0.863636 6:-0.863636 7:-1 8:-0.854406 9:-0.78169 10:-0.826772 11:-0.662651 12:-0.444444 13:-0.839161 
-100 1:-0.657143 2:-0.590909 3:-1 4:-0.727273 5:-0.590909 6:-0.590909 7:-1 8:-0.570881 9:-0.626761 10:-0.555118 11:-0.590361 12:-0.444444 13:-0.468531 
-100 1:-0.828571 2:0.272727 3:-0.666667 4:-0.909091 5:0.272727 6:0.272727 7:0.142857 8:-0.0421456 9:0.34507 10:0.283465 11:0.108434 12:-0.0555556 13:-0.0699301 
-100 1:-0.942857 2:-1 3:-1 4:-0.954545 5:-1 6:-1 7:-1 8:-0.984674 9:-0.985915 10:-0.980315 11:-0.951807 12:-0.777778 13:-0.965035 
-100 1:-0.257143 2:-0.909091 3:-1 4:-0.545455 5:-0.909091 6:-0.954545 7:-1 8:-0.793103 9:-0.753521 10:-0.795276 11:-0.445783 12:-0.388889 13:-0.643357 
-100 1:-0.942857 2:-0.954545 3:-1 4:-1 5:-0.954545 6:-0.954545 7:-1 8:-0.954023 9:-0.894366 10:-0.92126 11:-0.783133 12:-0.555556 13:-0.944056 
-100 1:-0.942857 2:-0.954545 3:-1 4:-1 5:-0.954545 6:-0.954545 7:-1 8:-0.938697 9:-0.915493 10:-0.944882 11:-0.855422 12:-0.555556 13:-0.93007 
-100 1:-0.828571 2:-0.590909 3:-1 4:-0.954545 5:-0.590909 6:-0.590909 7:-1 8:-0.59387 9:-0.683099 10:-0.645669 11:-0.46988 12:-0.277778 13:-0.594406 
-100 1:-0.885714 2:-1 3:-1 4:-1 5:-1 6:-1 7:-1 8:-0.908046 9:-0.887324 10:-0.925197 11:-0.638554 12:-0.722222 13:-0.853147 
-100 1:-0.771429 2:-0.954545 3:-1 4:-0.954545 5:-0.954545 6:-0.954545 7:-1 8:-0.846743 9:-0.704225 10:-0.76378 11:-0.421687 12:-0.555556 13:-0.797203 
-100 1:-0.885714 2:-0.954545 3:-1 4:-0.954545 5:-0.954545 6:-0.954545 7:-1 8:-0.862069 9:-0.838028 10:-0.850394 11:-0.662651 12:-0.444444 13:-0.832168 
-100 1:-0.942857 2:-0.954545 3:-1 4:-1 5:-0.954545 6:-1 7:-1 8:-0.961686 9:-0.957746 10:-0.976378 11:-0.879518 12:-0.777778 13:-0.951049 
-100 1:-0.942857 2:-0.954545 3:-1 4:-1 5:-0.954545 6:-0.954545 7:-1 8:-0.793103 9:-0.690141 10:-0.602362 11:-0.253012 12:-0.555556 13:-0.797203 
-100 1:-0.942857 2:-0.909091 3:-0.666667 4:-0.772727 5:-0.909091 6:-0.909091 7:-1 8:-0.823755 9:-0.774648 10:-0.846457 11:-0.710843 12:-0.388889 13:-0.776224 
-100 1:-0.885714 2:-0.954545 3:-1 4:-0.954545 5:-0.954545 6:-0.954545 7:-1 8:-0.885057 9:-0.852113 10:-0.870079 11:-0.686747 12:-0.555556 13:-0.86014 
-100 1:-0.657143 2:-0.863636 3:-0.666667 4:-0.863636 5:-0.863636 6:-0.863636 7:-0.809524 8:-0.800766 9:-0.725352 10:-0.76378 11:-0.566265 12:-0.277778 13:-0.741259 
-100 1:-0.828571 2:-0.681818 3:-1 4:-0.818182 5:-0.681818 6:-0.727273 7:-0.809524 8:-0.701149 9:-0.774648 10:-0.759843 11:-0.590361 12:-0.166667 13:-0.671329 
-100 1:-0.771429 2:-0.863636 3:-1 4:-1 5:-0.863636 6:-0.863636 7:-1 8:-0.800766 9:-0.704225 10:-0.724409 11:-0.421687 12:-0.277778 13:-0.783217 
-100 1:-0.485714 2:-0.886364 3:-1 4:-0.772727 5:-0.863636 6:-0.954545 7:-1 8:-0.731801 9:-0.760563 10:-0.779528 11:-0.518072 12:-0.222222 13:-0.636364 
-100 1:-0.942857 2:-1 3:-1 4:-1 5:-1 6:-1 7:-1 8:-0.977011 9:-0.971831 10:-0.964567 11:-0.927711 12:-0.666667 13:-0.965035 
-100 1:-0.828571 2:-0.863636 3:-1 4:-0.636364 5:-0.863636 6:-0.863636 7:-1 8:-0.777778 9:-0.852113 10:-0.838583 11:-0.686747 12:-0.388889 13:-0.713287 
-100 1:-0.885714 2:-0.772727 3:-1 4:-1 5:-0.772727 6:-0.772727 7:-0.809524 8:-0.724138 9:-0.704225 10:-0.724409 11:-0.542169 12:-0.0555556 13:-0.706294 
-100 1:-0.942857 2:-0.954545 3:-1 4:-1 5:-0.954545 6:-0.954545 7:-1 8:-0.862069 9:-0.802817 10:-0.862205 11:-0.518072 12:-0.5 13:-0.846154 
-100 1:-0.657143 2:-0.454545 3:-1 4:-1 5:-0.454545 6:-0.772727 7:-0.428571 8:-0.739464 9:-0.492958 10:-0.555118 11:-0.614458 12:0.222222 13:-0.706294 
-100 1:-1 2:-0.909091 3:-1 4:-0.863636 5:-0.909091 6:-0.909091 7:-1 8:-0.869732 9:-0.84507 10:-0.846457 11:-0.759036 12:-0.5 13:-0.853147 
-100 1:-0.885714 2:-1 3:-1 4:-0.954545 5:-1 6:-1 7:-1 8:-0.938697 9:-0.943662 10:-0.937008 11:-0.855422 12:-0.555556 13:-0.916084 
-100 1:-0.828571 2:-0.909091 3:-1 4:-1 5:-0.909091 6:-0.909091 7:-0.809524 8:-0.862069 9:-0.795775 10:-0.850394 11:-0.638554 12:-0.666667 13:-0.846154 
-100 1:-0.942857 2:-0.954545 3:-1 4:-1 5:-0.954545 6:-0.954545 7:-1 8:-0.938697 9:-0.922535 10:-0.929134 11:-0.855422 12:-0.611111 13:-0.916084 
-100 1:-0.942857 2:-1 3:-1 4:-1 5:-1 6:-1 7:-1 8:-0.954023 9:-0.943662 10:-0.964567 11:-0.807229 12:-0.722222 13:-0.923077 
-100 1:-0.657143 2:-0.818182 3:-1 4:-0.954545 5:-0.818182 6:-0.818182 7:-1 8:-0.616858 9:-0.542254 10:-0.606299 11:-0.228916 12:-0.333333 13:-0.587413 
-100 1:-1 2:-0.954545 3:-1 4:-1 5:-0.954545 6:-0.954545 7:-1 8:-0.900383 9:-0.873239 10:-0.874016 11:-0.73494 12:-0.5 13:-0.902098 
-100 1:-0.885714 2:-0.863636 3:-1 4:-1 5:-0.863636 6:-0.863636 7:-1 8:-0.739464 9:-0.732394 10:-0.76378 11:-0.614458 12:-0.333333 13:-0.741259 
-100 1:-0.714286 2:-0.545455 3:-1 4:-0.818182 5:-0.545455 6:-0.545455 7:-0.619048 8:-0.609195 9:-0.626761 10:-0.574803 11:-0.518072 12:-0.222222 13:-0.573427 
-42.40843994204126 1:-0.828571 2:-0.863636 3:-1 4:-0.727273 5:-0.863636 6:-0.863636 7:-0.714286 8:-0.800766 9:-0.838028 10:-0.826772 11:-0.710843 12:-0.222222 13:-0.748252 
-100 1:-1 2:-1 3:-1 4:-1 5:-1 6:-1 7:-1 8:-0.961686 9:-0.915493 10:-0.917323 11:-0.783133 12:-0.666667 13:-0.93007 
-100 1:-0.885714 2:-1 3:-1 4:-1 5:-1 6:-1 7:-1 8:-0.961686 9:-0.915493 10:-0.940945 11:-0.73494 12:-0.722222 13:-0.923077 
-100 1:-0.828571 2:-0.954545 3:-1 4:-1 5:-0.954545 6:-0.954545 7:-1 8:-0.915709 9:-0.950704 10:-0.929134 11:-0.879518 12:-0.5 13:-0.895105 
-100 1:-0.885714 2:-1 3:-1 4:-0.954545 5:-1 6:-1 7:-1 8:-0.954023 9:-0.93662 10:-0.929134 11:-0.831325 12:-0.611111 13:-0.909091 
-100 1:-0.942857 2:-1 3:-1 4:-0.227273 5:-1 6:-1 7:-1 8:-0.992337 9:-0.992958 10:-0.988189 11:-0.975904 12:-0.833333 13:-0.86014 
-100 1:-1 2:-1 3:-1 4:-1 5:-1 6:-1 7:-1 8:-0.984674 9:-0.992958 10:-1 11:-0.975904 12:-1 13:-0.986014 
-100 1:-1 2:-0.909091 3:-1 4:-1 5:-0.909091 6:-1 7:-0.809524 8:-0.984674 9:-0.950704 10:-0.940945 11:-0.903614 12:-0.333333 13:-0.979021 
-100 1:-1 2:-0.863636 3:-1 4:-1 5:-0.863636 6:-0.863636 7:-1 8:-0.862069 9:-0.802817 10:-0.850394 11:-0.686747 12:-0.611111 13:-0.846154 
-100 1:-1 2:-0.909091 3:-1 4:-1 5:-0.909091 6:-0.954545 7:-1 8:-1 9:-0.978873 10:-0.956693 11:-0.951807 12:-0.555556 13:-0.993007 
-100 1:-1 2:-0.954545 3:-1 4:-1 5:-0.954545 6:-1 7:-1 8:-0.954023 9:-0.908451 10:-0.917323 11:-0.831325 12:-0.277778 13:-0.951049 
-100 1:-1 2:-0.886364 3:-1 4:-1 5:-0.863636 6:-0.863636 7:-1 8:-0.739464 9:-0.612676 10:-0.492126 11:-0.156627 12:-0.5 13:-0.755245 
-100 1:-0.257143 2:-0.636364 3:-1 4:-0.727273 5:-0.636364 6:-0.681818 7:-0.714286 8:-0.471264 9:-0.514085 10:-0.496063 11:-0.228916 12:-0.166667 13:-0.377622 
-100 1:-0.885714 2:-0.795455 3:-1 4:-0.909091 5:-0.772727 6:-0.772727 7:-1 8:-0.662835 9:-0.697183 10:-0.669291 11:-0.614458 13:-0.657343 
-100 1:-0.885714 2:-1 3:-1 4:-0.954545 5:-1 6:-1 7:-1 8:-0.94636 9:-0.93662 10:-0.940945 11:-0.831325 12:-0.555556 13:-0.916084 
-100 1:-0.771429 2:-1 3:-1 4:-1 5:-1 6:-1 7:-1 8:-0.89272 9:-0.894366 10:-0.862205 11:-0.855422 12:-0.555556 13:-0.867133 
-48.97976414378347 1:-1 2:-1 4:-1 5:-1 6:-1 7:-1 8:-0.961686 9:-0.894366 10:-0.929134 11:-0.807229 12:-0.777778 13:-0.937063 
-100 1:-1 2:-1 3:-1 4:-1 5:-1 6:-1 7:-1 8:-0.954023 9:-0.93662 10:-0.944882 11:-0.831325 12:-0.611111 13:-0.937063 
-100 1:-0.885714 2:-0.954545 3:-1 4:-0.954545 5:-0.954545 6:-0.954545 7:-1 8:-0.938697 9:-0.915493 10:-0.929134 11:-0.831325 12:-0.666667 13:-0.923077 
-100 1:-0.828571 2:-0.681818 3:-0.666667 4:-0.909091 5:-0.681818 6:-0.818182 7:-0.428571 8:-0.747126 9:-0.704225 10:-0.73622 11:-0.421687 12:0.111111 13:-0.706294 
-35.6091821761449 1:-0.314286 2:-0.136364 3:1 4:-0.0909091 5:-0.136364 6:-0.5 7:-0.428571 8:-0.310345 9:-0.0211268 10:-0.216535 11:0.445783 12:0.0555556 13:-0.0979021 
